svm_type c_svc
kernel_type rbf
gamma 0.25
nr_class 3
total_sv 52
rho -0.0681855 -0.0628999 -0.0295116
label 1 2 3
nr_sv 6 25 21
SV
0 0.5973366867106396 1:-0.176471 2:1 3:-0.857143 4:-0.75 
1 0.7203924319166082 1:-0.529412 2:-4.44089e-16 3:-0.785714 4:-0.666667 
1 0 1:-0.588235 2:-0.272727 3:-0.821429 4:-0.916667 
0.003881438686454741 0 1:-0.352941 2:0.0909091 3:-0.857143 4:-0.75 
1 1 1:-0.882353 2:-0.909091 3:-0.928571 4:-0.833333 
1 0 1:-0.588235 2:0.181818 3:-0.821429 4:-0.583333 
-0 1 1:0.235294 2:-0.0909091 3:0.214286 4:0.166667 
-0 1 1:0.529412 2:-0.181818 3:0.357143 4:0.166667 
-0 1 1:-0.294118 2:-0.909091 3:0.0357143 
-0 1 1:0.294118 2:-0.454545 3:0.25 4:0.166667 
-0 1 1:0.176471 2:-4.44089e-16 3:0.285714 4:0.25 
-1 0 1:-0.647059 2:-0.818182 3:-0.214286 4:-0.25 
-0 1 1:-0.0588235 2:-0.272727 3:0.107143 4:0.166667 
-0 1 1:0.0588235 2:-0.363636 3:0.285714 4:0.0833333 
-1 0 1:-0.235294 2:-0.363636 3:-0.107143 
-0 1 1:-0.235294 2:-0.272727 3:0.214286 4:0.166667 
-0 1 1:0.117647 2:-1 3:0.214286 4:0.166667 
-0 1 1:-0.0588235 2:-0.0909091 3:0.321429 4:0.416667 
-0 0.1850265652318597 1:0.352941 2:-0.272727 3:0.178571 4:0.0833333 
-0 1 1:0.470588 2:-0.454545 3:0.321429 4:0.0833333 
-0 1 1:0.411765 2:-0.272727 3:0.392857 4:0.333333 
-0 1 2:-0.363636 3:0.214286 4:0.166667 
-0.4572708450676533 0 1:-0.294118 2:-0.818182 3:-0.0714286 4:-0.25 
-0 1 2:-0.545455 3:0.428571 4:0.25 
-0 1 1:-0.352941 2:-0.272727 3:0.214286 4:0.166667 
-0 1 1:0.411765 2:-0.181818 3:0.285714 4:0.166667 
-0 1 1:0.176471 2:-0.909091 3:0.178571 
-0.5466105936188015 0 1:-0.235294 2:-0.272727 3:0.0714286 
-0 0.5988419394292931 1:-0.294118 2:-0.727273 3:0.0357143 
-0 1 1:0.0588235 2:-0.272727 3:0.25 4:0.0833333 
-1 0 1:-0.588235 2:-0.909091 3:-0.214286 4:-0.25 
-0 -1 1:-0.117647 2:-0.545455 3:0.428571 4:0.5 
-1 -1 1:-0.647059 2:-0.727273 3:0.214286 4:0.333333 
-0.4601490693978202 -0 1:0.705882 2:0.272727 3:0.785714 4:1 
-0 -1 1:0.294118 2:-0.0909091 3:0.428571 4:0.583333 
-0 -1 1:0.235294 2:-0.545455 3:0.5 4:0.5 
-0 -1 1:-0.176471 2:-0.727273 3:0.392857 4:0.583333 
-0 -1 1:0.294118 2:-0.272727 3:0.571429 4:0.416667 
-0.3410276725944134 -1 2:-1 3:0.392857 4:0.166667 
-0 -1 1:-0.235294 2:-0.454545 3:0.357143 4:0.583333 
-0 -1 1:0.176471 2:-0.545455 3:0.357143 4:0.416667 
-0 -1 1:0.411765 2:-4.44089e-16 3:0.642857 4:0.666667 
-0 -1 1:0.117647 2:-0.454545 3:0.321429 4:0.416667 
-0 -1 1:0.705882 2:-0.272727 3:0.678571 4:0.25 
-0.5165523766350142 -1 1:0.176471 2:-0.454545 3:0.428571 4:0.166667 
-0 -1 1:0.0588235 2:-0.636364 3:0.607143 4:0.0833333 
-0 -1 2:-0.272727 3:0.321429 4:0.416667 
-0 -0.71370922811542 1:0.529412 2:-0.181818 3:0.428571 4:0.833333 
-0 -1 1:-0.117647 2:-0.545455 3:0.428571 4:0.5 
-0 -1 1:0.176471 2:-0.727273 3:0.392857 4:0.5 
-0 -0.07015927654573278 1:0.117647 2:0.0909091 3:0.535714 4:0.833333 
-0 -1 1:-0.0588235 2:-0.272727 3:0.428571 4:0.416667 
