svm_type c_svc
kernel_type rbf
gamma 0.0769231
nr_class 3
total_sv 100
rho 0.0950431 -0.199251 -0.280801
label 1 2 3
nr_sv 34 39 27
SV
1 0.8001449482157613 1:13.2 2:1.78 3:2.14 4:11.2 5:100 6:2.65 7:2.76 8:0.26 9:1.28 10:4.38 11:1.05 12:3.4 13:1050 
1 0.8010425815749481 1:13.16 2:2.36 3:2.67 4:18.6 5:101 6:2.8 7:3.24 8:0.3 9:2.81 10:5.68 11:1.03 12:3.17 13:1185 
1 0.8008739145362905 1:14.37 2:1.95 3:2.5 4:16.8 5:113 6:3.85 7:3.49 8:0.24 9:2.18 10:7.8 11:0.86 12:3.45 13:1480 
1 0.8001982702045418 1:13.24 2:2.59 3:2.87 4:21 5:118 6:2.8 7:2.69 8:0.39 9:1.82 10:4.32 11:1.04 12:2.93 13:735 
1 0.8008741080767872 1:14.2 2:1.76 3:2.45 4:15.2 5:112 6:3.27 7:3.39 8:0.34 9:1.97 10:6.75 11:1.05 12:2.85 13:1450 
1 0.8007888042422702 1:14.39 2:1.87 3:2.45 4:14.6 5:96 6:2.5 7:2.52 8:0.3 9:1.98 10:5.25 11:1.02 12:3.58 13:1290 
1 0.8008315064226559 1:14.06 2:2.15 3:2.61 4:17.6 5:121 6:2.6 7:2.51 8:0.31 9:1.25 10:5.05 11:1.06 12:3.58 13:1295 
0.9916970920846578 0.7245824965749779 1:14.1 2:2.16 3:2.3 4:18 5:105 6:2.95 7:3.32 8:0.22 9:2.38 10:5.75 11:1.25 12:3.17 13:1510 
1 0.8008741080767872 1:14.75 2:1.73 3:2.39 4:11.4 5:91 6:3.1 7:3.69 8:0.43 9:2.81 10:5.4 11:1.25 12:2.73 13:1150 
1 0.8008741065694467 1:13.63 2:1.81 3:2.7 4:17.2 5:112 6:2.85 7:2.91 8:0.3 9:1.46 10:7.3 11:1.28 12:2.88 13:1310 
1 0.8007774560224306 1:14.3 2:1.92 3:2.72 4:20 5:120 6:2.8 7:3.14 8:0.33 9:1.97 10:6.2 11:1.07 12:2.65 13:1280 
1 0.8010070747289109 1:12.93 2:3.8 3:2.65 4:18.6 5:102 6:2.41 7:2.41 8:0.25 9:1.98 10:4.5 11:1.03 12:3.52 13:770 
0.97272857497389 0.7108798764492044 1:13.71 2:1.86 3:2.36 4:16.6 5:101 6:2.61 7:2.88 8:0.27 9:1.69 10:3.8 11:1.11 12:4 13:1035 
1 0.7669356952277896 1:12.85 2:1.6 3:2.52 4:17.8 5:95 6:2.48 7:2.37 8:0.26 9:1.46 10:3.93 11:1.09 12:3.63 13:1015 
1 0.8008728144974739 1:13.39 2:1.77 3:2.62 4:16.1 5:93 6:2.85 7:2.94 8:0.34 9:1.45 10:4.8 11:0.92 12:3.22 13:1195 
1 0.8007075449243658 1:13.87 2:1.9 3:2.8 4:19.4 5:107 6:2.95 7:2.97 8:0.37 9:1.76 10:4.5 11:1.25 12:3.4 13:915 
0.9719011021113287 0.7110022854936857 1:14.02 2:1.68 3:2.21 4:16 5:96 6:2.65 7:2.33 8:0.26 9:1.98 10:4.7 11:1.04 12:3.59 13:1035 
0.9914603473006567 0.7252144165394611 1:13.58 2:1.66 3:2.36 4:19.1 5:106 6:2.86 7:3.19 8:0.22 9:1.95 10:6.9 11:1.09 12:2.88 13:1515 
1 0.8010509960564809 1:13.76 2:1.53 3:2.7 4:19.5 5:132 6:2.95 7:2.74 8:0.5 9:1.35 10:5.4 11:1.25 12:3 13:1235 
1 0.8008476181692579 1:13.51 2:1.8 3:2.65 4:19 5:110 6:2.35 7:2.53 8:0.29 9:1.54 10:4.2 11:1.1 12:2.87 13:1095 
1 0.7601735335287774 1:13.28 2:1.64 3:2.84 4:15.5 5:110 6:2.6 7:2.68 8:0.34 9:1.36 10:4.6 11:1.09 12:2.78 13:880 
1 0.8001982650646603 1:13.05 2:1.65 3:2.55 4:18 5:98 6:2.45 7:2.43 8:0.29 9:1.44 10:4.25 11:1.12 12:2.51 13:1105 
1 0.7668345209548489 1:13.07 2:1.5 3:2.1 4:15.5 5:98 6:2.4 7:2.64 8:0.28 9:1.37 10:3.7 11:1.18 12:2.69 13:1020 
1 0.8007482929153463 1:14.22 2:3.99 3:2.51 4:13.2 5:128 6:3 7:3.04 8:0.2 9:2.08 10:5.1 11:0.89 12:3.53 13:760 
1 0.8007482929153463 1:13.56 2:1.71 3:2.31 4:16.2 5:117 6:3.15 7:3.29 8:0.34 9:2.34 10:6.13 11:0.95 12:3.38 13:795 
1 0.8828888111120228 1:13.24 2:3.98 3:2.29 4:17.5 5:103 6:2.64 7:2.63 8:0.32 9:1.66 10:4.36 11:0.82 12:3 13:680 
1 0.760419555568436 1:13.05 2:1.77 3:2.1 4:17 5:107 6:3 7:3 8:0.28 9:2.03 10:5.04 11:0.88 12:3.35 13:885 
1 0.8007184043301678 1:14.21 2:4.04 3:2.44 4:18.9 5:111 6:2.85 7:2.65 8:0.3 9:1.25 10:5.24 11:0.87 12:3.33 13:1080 
1 0.8001251996528556 1:13.83 2:1.65 3:2.6 4:17.2 5:94 6:2.45 7:2.99 8:0.22 9:2.29 10:5.6 11:1.24 12:3.37 13:1265 
1 0.8008668033474259 1:13.82 2:1.75 3:2.42 4:14 5:111 6:3.88 7:3.74 8:0.32 9:1.87 10:7.05 11:1.01 12:3.26 13:1190 
1 0.800718417245062 1:13.77 2:1.9 3:2.68 4:17.1 5:115 6:3 7:2.79 8:0.39 9:1.68 10:6.3 11:1.13 12:2.93 13:1375 
1 0.800800451165482 1:14.22 2:1.7 3:2.3 4:16.3 5:118 6:3.2 7:3 8:0.26 9:2.03 10:6.38 11:0.94 12:3.31 13:970 
1 0.8000592504379673 1:13.29 2:1.97 3:2.68 4:16.8 5:102 6:3 7:3.23 8:0.31 9:1.66 10:6 11:1.07 12:2.84 13:1270 
1 0.8007766357954834 1:13.72 2:1.43 3:2.5 4:16.7 5:108 6:3.4 7:3.67 8:0.19 9:2.04 10:6.8 11:0.89 12:2.87 13:1285 
-1 0.7254470374742352 1:12.33 2:1.1 3:2.28 4:16 5:101 6:2.05 7:1.09 8:0.63 9:0.41 10:3.27 11:1.25 12:1.67 13:680 
-0.7004804519611205 0.5567680277133491 1:12.64 2:1.36 3:2.02 4:16.8 5:100 6:2.02 7:1.41 8:0.53 9:0.62 10:5.75 11:0.98 12:1.59 13:450 
-0.8747593707524455 0.6953337922055023 1:13.67 2:1.25 3:1.92 4:18 5:94 6:2.1 7:1.79 8:0.32 9:0.73 10:3.8 11:1.23 12:2.46 13:630 
-0.9047890570457099 0.7187886985349424 1:12.17 2:1.45 3:2.53 4:19 5:104 6:1.89 7:1.75 8:0.45 9:1.03 10:2.95 11:1.45 12:2.23 13:355 
-0.5745149382548035 0.4562873594960203 1:12.37 2:1.17 3:1.92 4:19.6 5:78 6:2.11 7:2 8:0.27 9:1.04 10:4.68 11:1.12 12:3.48 13:510 
-0.9053080082170057 0.7193475301063135 1:13.34 2:0.94 3:2.36 4:17 5:110 6:2.53 7:1.3 8:0.55 9:0.42 10:3.17 11:1.02 12:1.93 13:750 
-0.9050323235411688 0.7186980104933369 1:12.21 2:1.19 3:1.75 4:16.8 5:151 6:1.85 7:1.28 8:0.14 9:2.5 10:2.85 11:1.28 12:3.07 13:718 
-0.8962885774364148 0.7123505330370798 1:13.86 2:1.51 3:2.67 4:25 5:86 6:2.95 7:2.86 8:0.21 9:1.87 10:3.38 11:1.36 12:3.16 13:410 
-0.9041078365166078 0.7235486500935892 1:13.49 2:1.66 3:2.24 4:24 5:87 6:1.88 7:1.84 8:0.27 9:1.03 10:3.74 11:0.98 12:2.78 13:472 
-0.9157371680024549 0.7195539373242381 1:11.96 2:1.09 3:2.3 4:21 5:101 6:3.38 7:2.14 8:0.13 9:1.65 10:3.21 11:0.99 12:3.13 13:886 
-0.9049145064615426 0.7188770581452133 1:11.66 2:1.88 3:1.92 4:16 5:97 6:1.61 7:1.57 8:0.34 9:1.15 10:3.8 11:1.23 12:2.14 13:428 
-0.9047647222021686 0.7188750096729156 1:11.84 2:2.89 3:2.23 4:18 5:112 6:1.72 7:1.32 8:0.43 9:0.95 10:2.65 11:0.96 12:2.52 13:500 
-0.9049076660040637 0.7187698975867385 1:12 2:0.92 3:2 4:19 5:86 6:2.42 7:2.26 8:0.3 9:1.43 10:2.5 11:1.38 12:3.12 13:278 
-0.9050323235411688 0.7243593025726873 1:12.72 2:1.81 3:2.2 4:18.8 5:86 6:2.2 7:2.53 8:0.26 9:1.77 10:3.9 11:1.16 12:3.14 13:714 
-0.902055998922551 0.7639643782428631 1:13.05 2:3.86 3:2.32 4:22.5 5:85 6:1.65 7:1.59 8:0.61 9:1.62 10:4.8 11:0.84 12:2.01 13:515 
-0.90499042517643 0.7197154429704318 1:11.84 2:0.89 3:2.58 4:18 5:94 6:2.2 7:2.21 8:0.22 9:2.35 10:3.05 11:0.79 12:3.08 13:520 
-0.7006448848593638 0.5571067664861737 1:12.67 2:0.98 3:2.24 4:18 5:99 6:2.2 7:1.94 8:0.3 9:1.46 10:2.62 11:1.23 12:3.16 13:450 
-0.8959717686820431 0.7123267444655791 1:11.65 2:1.67 3:2.62 4:26 5:88 6:1.92 7:1.61 8:0.4 9:1.34 10:2.6 11:1.36 12:3.21 13:562 
-0.9050925513127638 0.7196527665581088 1:12.08 2:1.33 3:2.3 4:23.6 5:70 6:2.2 7:1.59 8:0.42 9:1.38 10:1.74 11:1.07 12:3.21 13:625 
-0.9053097280002134 0.7188352729511842 1:12 2:1.51 3:2.42 4:22 5:86 6:1.45 7:1.25 8:0.5 9:1.63 10:3.6 11:1.05 12:2.65 13:450 
-0.9049120501253922 0.719394826332224 1:12.29 2:2.83 3:2.22 4:18 5:88 6:2.45 7:2.25 8:0.25 9:1.99 10:2.15 11:1.15 12:3.3 13:290 
-0.9048464382525671 0.7187069842977969 1:11.62 2:1.99 3:2.28 4:18 5:98 6:3.02 7:2.26 8:0.17 9:1.35 10:3.25 11:1.16 12:2.96 13:345 
-0.9050064803499936 0.7193155504744958 1:12.47 2:1.52 3:2.2 4:19 5:162 6:2.5 7:2.27 8:0.32 9:3.28 10:2.6 11:1.16 12:2.63 13:937 
-0.9049188846684471 0.7194507060571083 1:11.81 2:2.12 3:2.74 4:21.5 5:134 6:1.6 7:0.99 8:0.14 9:1.56 10:2.5 11:0.95 12:2.26 13:625 
-0.9021149508676565 0.7168353043292524 1:12.29 2:3.17 3:2.21 4:18 5:88 6:2.85 7:2.99 8:0.45 9:2.81 10:2.3 11:1.42 12:2.83 13:406 
-0.8978880652615647 0.7202970532850879 1:11.82 2:1.72 3:1.88 4:19.5 5:86 6:2.5 7:1.64 8:0.37 9:1.42 10:2.06 11:0.94 12:2.44 13:415 
-0.7872954731142623 0.6262536773333665 1:12.42 2:2.55 3:2.27 4:22 5:90 6:1.68 7:1.84 8:0.66 9:1.42 10:2.7 11:0.86 12:3.3 13:315 
-0.5670351068603597 0.450734695802632 1:12.25 2:1.73 3:2.12 4:19 5:80 6:1.65 7:2.03 8:0.37 9:1.63 10:3.4 11:1 12:3.17 13:510 
-0.7884594683107314 0.6264417791163922 1:12.22 2:1.29 3:1.94 4:19 5:92 6:2.36 7:2.04 8:0.39 9:2.08 10:2.7 11:0.86 12:3.02 13:312 
-0.9050989944715321 0.7190056158388818 1:12.52 2:2.43 3:2.17 4:21 5:88 6:2.55 7:2.27 8:0.26 9:1.22 10:2 11:0.9 12:2.78 13:325 
-0.9045480782587441 0.719215369487935 1:11.76 2:2.68 3:2.92 4:20 5:103 6:1.75 7:2.03 8:0.6 9:1.05 10:3.8 11:1.23 12:2.5 13:607 
-0.8759109905415543 0.6962589966671118 1:12.08 2:1.39 3:2.5 4:22.5 5:84 6:2.56 7:2.29 8:0.43 9:1.04 10:2.9 11:0.93 12:3.19 13:385 
-0.9047966222519717 0.7191230451270085 1:12.42 2:1.61 3:2.19 4:22.5 5:108 6:2 7:2.09 8:0.34 9:1.61 10:2.06 11:1.06 12:2.96 13:345 
-0.8959717686588889 0.7122616091461758 1:12 2:3.43 3:2 4:19 5:87 6:2 7:1.64 8:0.37 9:1.87 10:1.28 11:0.93 12:3.05 13:564 
-0.8747591597533119 0.6954792166834822 1:11.45 2:2.4 3:2.42 4:20 5:96 6:2.9 7:2.79 8:0.32 9:1.83 10:3.25 11:0.8 12:3.39 13:625 
-0.8758740381933012 0.6963061771523935 1:11.87 2:4.31 3:2.39 4:21 5:82 6:2.86 7:3.03 8:0.21 9:2.91 10:2.8 11:0.75 12:3.64 13:380 
-0.9050061744773259 0.7192077817711485 1:12.43 2:1.53 3:2.29 4:21.5 5:86 6:2.74 7:3.15 8:0.39 9:1.77 10:3.94 11:0.69 12:2.84 13:352 
-0.9037232047291721 0.7184495031406566 1:11.79 2:2.13 3:2.78 4:28.5 5:92 6:2.13 7:2.24 8:0.58 9:1.76 10:3 11:0.97 12:2.44 13:466 
-0.9049188604337169 0.7193892947674798 1:12.04 2:4.3 3:2.38 4:22 5:80 6:2.1 7:1.75 8:0.42 9:1.35 10:2.6 11:0.79 12:2.57 13:580 
-1 -1 1:12.81 2:2.31 3:2.4 4:24 5:98 6:1.15 7:1.09 8:0.27 9:0.83 10:5.7 11:0.66 12:1.36 13:560 
-1 -1 1:12.51 2:1.24 3:2.25 4:17.5 5:85 6:2 7:0.58 8:0.6 9:1.25 10:5.45 11:0.75 12:1.51 13:650 
-1 -1 1:12.25 2:4.72 3:2.54 4:21 5:89 6:1.38 7:0.47 8:0.53 9:0.8 10:3.85 11:0.75 12:1.27 13:720 
-1 -1 1:12.84 2:2.96 3:2.61 4:24 5:101 6:2.32 7:0.6 8:0.53 9:0.81 10:4.92 11:0.89 12:2.15 13:590 
-1 -1 1:12.93 2:2.81 3:2.7 4:21 5:96 6:1.54 7:0.5 8:0.53 9:0.75 10:4.6 11:0.77 12:2.31 13:600 
-1 -1 1:13.62 2:4.95 3:2.35 4:20 5:92 6:2 7:0.8 8:0.47 9:1.02 10:4.4 11:0.91 12:2.05 13:550 
-1 -1 1:12.25 2:3.88 3:2.2 4:18.5 5:112 6:1.38 7:0.78 8:0.29 9:1.14 10:8.21 11:0.65 12:2 13:855 
-1 -1 1:13.16 2:3.57 3:2.15 4:21 5:102 6:1.5 7:0.55 8:0.43 9:1.3 10:4 11:0.6 12:1.68 13:830 
-1 -1 1:13.88 2:5.04 3:2.23 4:20 5:80 6:0.98 7:0.34 8:0.4 9:0.68 10:4.9 11:0.58 12:1.33 13:415 
-1 -1 1:12.87 2:4.61 3:2.48 4:21.5 5:86 6:1.7 7:0.65 8:0.47 9:0.86 10:7.65 11:0.54 12:1.86 13:625 
-1 -1 1:13.32 2:3.24 3:2.38 4:21.5 5:92 6:1.93 7:0.76 8:0.45 9:1.25 10:8.42 11:0.55 12:1.62 13:650 
-1 -1 1:13.5 2:3.12 3:2.62 4:24 5:123 6:1.4 7:1.57 8:0.22 9:1.25 10:8.6 11:0.59 12:1.3 13:500 
-1 -1 1:12.79 2:2.67 3:2.48 4:22 5:112 6:1.48 7:1.36 8:0.24 9:1.26 10:10.8 11:0.48 12:1.47 13:480 
-1 -1 1:13.11 2:1.9 3:2.75 4:25.5 5:116 6:2.2 7:1.28 8:0.26 9:1.56 10:7.1 11:0.61 12:1.33 13:425 
-1 -1 1:12.58 2:1.29 3:2.1 4:20 5:103 6:1.48 7:0.58 8:0.53 9:1.4 10:7.6 11:0.58 12:1.55 13:640 
-1 -1 1:13.17 2:5.19 3:2.32 4:22 5:93 6:1.74 7:0.63 8:0.61 9:1.55 10:7.9 11:0.6 12:1.48 13:725 
-1 -1 1:14.34 2:1.68 3:2.7 4:25 5:98 6:2.8 7:1.31 8:0.53 9:2.7 10:13 11:0.57 12:1.96 13:660 
-1 -1 1:13.69 2:3.26 3:2.54 4:20 5:107 6:1.83 7:0.56 8:0.5 9:0.8 10:5.88 11:0.96 12:1.82 13:680 
-1 -1 1:12.85 2:3.27 3:2.58 4:22 5:106 6:1.65 7:0.6 8:0.6 9:0.96 10:5.58 11:0.87 12:2.11 13:570 
-1 -1 1:13.73 2:4.36 3:2.26 4:22.5 5:88 6:1.28 7:0.47 8:0.52 9:1.15 10:6.62 11:0.78 12:1.75 13:520 
-1 -1 1:12.82 2:3.37 3:2.3 4:19.5 5:88 6:1.48 7:0.66 8:0.4 9:0.97 10:10.26 11:0.72 12:1.75 13:685 
-0.9132321331267317 -0.9753860915556092 1:13.58 2:2.58 3:2.69 4:24.5 5:105 6:1.55 7:0.84 8:0.39 9:1.54 10:8.66 11:0.74 12:1.8 13:750 
-1 -1 1:13.4 2:4.6 3:2.86 4:25 5:112 6:1.98 7:0.96 8:0.27 9:1.11 10:8.5 11:0.67 12:1.92 13:630 
-1 -1 1:12.77 2:2.39 3:2.28 4:19.5 5:86 6:1.39 7:0.51 8:0.48 9:0.64 10:9.9 11:0.57 12:1.63 13:470 
-1 -1 1:13.71 2:5.65 3:2.45 4:20.5 5:95 6:1.68 7:0.61 8:0.52 9:1.06 10:7.7 11:0.64 12:1.74 13:740 
-0.913224923510678 -0.9753473113855218 1:13.4 2:3.91 3:2.48 4:23 5:102 6:1.8 7:0.75 8:0.43 9:1.41 10:7.3 11:0.7 12:1.56 13:750 
-1 -1 1:13.17 2:2.59 3:2.37 4:20 5:120 6:1.65 7:0.68 8:0.53 9:1.46 10:9.3 11:0.6 12:1.62 13:840 
