svm_type c_svc
kernel_type rbf
gamma 0.0769231
nr_class 3
total_sv 53
rho 0.951275 0.285764 -0.179075
label 1 2 3
nr_sv 15 24 14
SV
1 0 1:0.0606061 2:-0.62605 3:-0.333333 4:-1 5:-0.347826 6:0.151724 7:0.423529 8:-0.509434 9:-0.393728 10:-0.47099 11:0.175258 12:0.56044 13:0.248181 
1 1 1:0.0848485 2:-0.285714 3:0.91453 4:0.132948 5:0.0434783 6:0.255172 7:0.382353 8:-0.0188679 9:-0.0174216 10:-0.481229 11:0.154639 12:0.216117 13:-0.261116 
1 0.6831547781867024 1:-0.10303 2:0.222689 3:0.538462 4:-0.144509 5:-0.304348 6:-0.0137931 7:0.217647 8:-0.54717 9:0.0940767 10:-0.450512 11:0.134021 12:0.648352 13:-0.204527 
1 0 1:-0.151515 2:-0.701681 3:0.316239 4:-0.236994 5:-0.456522 6:0.0344828 7:0.194118 8:-0.509434 9:-0.268293 10:-0.547782 11:0.257732 12:0.728938 13:0.191593 
1 0 1:0.466667 2:-0.57563 3:0.794872 4:-0.0520231 5:-0.195652 6:0.358621 7:0.547059 8:-0.0943396 9:-0.0592334 10:-0.450512 11:0.587629 12:0.56044 13:0.0299111 
1 0 1:0.557576 2:-0.668067 3:-0.213675 4:-0.445087 5:-0.434783 6:0.151724 7:0.170588 8:-0.509434 9:0.0940767 10:-0.416382 11:0.154639 12:0.699634 13:0.223929 
0 0.2244409644040532 1:0.4 2:-0.731092 3:0.623932 4:-0.0404624 5:0.347826 6:0.358621 7:0.411765 8:0.396226 9:-0.344948 10:-0.296928 11:0.587629 12:0.267399 13:0.547292 
1 0 1:0.248485 2:-0.617647 3:0.538462 4:-0.0982659 5:-0.130435 6:-0.0551724 7:0.288235 8:-0.396226 9:-0.212544 10:-0.501706 11:0.278351 12:0.172161 13:0.320938 
1 0.2846062307505601 1:0.109091 2:-0.684874 3:0.863248 4:-0.50289 5:-0.130435 6:0.117241 7:0.376471 8:-0.207547 9:-0.337979 10:-0.433447 11:0.257732 12:0.106227 13:-0.0266774 
1 1 1:-0.030303 2:-0.680672 3:0.367521 4:-0.213873 5:-0.391304 6:0.0137931 7:0.229412 8:-0.396226 9:-0.28223 10:-0.493174 11:0.319588 12:-0.0915751 13:0.337106 
1 0.3047236445247258 1:-0.0181818 2:-0.743697 3:-0.401709 4:-0.50289 5:-0.391304 6:-0.0206897 7:0.352941 8:-0.433962 9:-0.33101 10:-0.587031 11:0.443299 12:0.040293 13:0.199677 
1 0 1:0.278788 2:-0.655462 3:-0.042735 4:-0.421965 5:0.0217391 6:0.496552 7:0.735294 8:-0.207547 9:0.344948 10:-0.172355 11:-0.0309278 12:0.545788 13:-0.164107 
1 1 1:0.0848485 2:0.298319 3:-0.0769231 4:-0.271676 5:-0.282609 6:0.144828 7:0.347059 8:-0.283019 9:-0.12892 10:-0.474403 11:-0.298969 12:0.267399 13:-0.35004 
1 0 1:-0.030303 2:-0.630252 3:-0.401709 4:-0.32948 5:-0.195652 6:0.393103 7:0.564706 8:-0.433962 9:0.12892 10:-0.358362 11:-0.175258 12:0.52381 13:-0.0185934 
0 1 1:0.672727 2:0.323529 3:0.179487 4:-0.109827 5:-0.108696 6:0.289655 7:0.358824 8:-0.358491 9:-0.414634 10:-0.324232 11:-0.195876 12:0.509158 13:0.296686 
-0 1 1:-0.466667 2:-0.911765 3:-0.0940171 4:-0.445087 5:-0.326087 6:-0.262069 7:-0.558824 8:0.886792 9:-1 10:-0.66041 11:0.587629 12:-0.70696 13:-0.35004 
-0 1 1:-0.278788 2:-0.802521 3:-0.538462 4:-0.352601 5:-0.347826 6:-0.282759 7:-0.370588 8:0.509434 9:-0.853659 10:-0.237201 11:0.0309278 12:-0.765568 13:-0.721908 
-1 0.252821738432321 1:0.345455 2:-0.848739 3:-0.709402 4:-0.213873 5:-0.478261 6:-0.227586 7:-0.147059 8:-0.283019 9:-0.777003 10:-0.569966 11:0.546392 12:-0.128205 13:-0.430881 
-1 1 1:0.145455 2:-0.978992 3:0.042735 4:-0.32948 5:-0.130435 6:0.0689655 7:-0.435294 8:0.584906 9:-0.993031 10:-0.677474 11:0.113402 12:-0.516484 13:-0.236863 
-0.06387322568280993 0 1:-0.539394 2:-0.87395 3:-1 4:-0.352601 5:0.76087 6:-0.4 7:-0.447059 8:-0.962264 9:0.456446 10:-0.732082 11:0.649485 12:0.318681 13:-0.288601 
-1 0 1:0.460606 2:-0.739496 3:0.57265 4:0.595376 5:-0.652174 6:0.358621 7:0.482353 8:-0.698113 9:0.0174216 10:-0.641638 11:0.814433 12:0.384615 13:-0.78658 
-1 1 1:0.236364 2:-0.676471 3:-0.162393 4:0.479769 5:-0.630435 6:-0.37931 7:-0.117647 8:-0.471698 9:-0.567944 10:-0.580205 11:0.0309278 12:0.106227 13:-0.686338 
-1 0 1:-0.690909 2:-0.915966 3:-0.0598291 4:0.132948 5:-0.326087 6:0.655172 7:0.0588235 8:-1 9:-0.135889 10:-0.670648 11:0.0515464 12:0.362637 13:-0.0169766 
-0 1 1:-0.763636 2:-0.159664 3:-0.179487 4:-0.213873 5:-0.0869565 6:-0.489655 7:-0.423529 8:0.132075 9:-0.623693 10:-0.766212 11:-0.0103093 12:-0.0842491 13:-0.641067 
-1 0 1:-0.230303 2:-0.613445 3:-0.230769 4:-0.121387 5:-0.652174 6:-0.158621 7:0.288235 8:-0.509434 9:-0.0522648 10:-0.552901 11:0.402062 12:0.369963 13:-0.295069 
-0 1 1:-0.030303 2:0.247899 3:-0.025641 4:0.306358 5:-0.673913 6:-0.537931 7:-0.264706 8:0.811321 9:-0.156794 10:-0.399317 11:-0.257732 12:-0.457875 13:-0.616815 
-1 0 1:-0.763636 2:-1 3:0.418803 4:-0.213873 5:-0.478261 6:-0.158621 7:0.1 8:-0.660377 9:0.351916 10:-0.697952 11:-0.360825 12:0.326007 13:-0.608731 
-1 0 1:-0.260606 2:-0.962185 3:-0.162393 4:-0.213873 5:-0.369565 6:-0.158621 7:-0.0588235 8:-0.358491 9:-0.268293 10:-0.771331 11:0.546392 12:0.384615 13:-0.721908 
-0 1 1:-0.666667 2:-0.739496 3:0.145299 4:0.248555 5:-0.652174 6:-0.675862 7:-0.464706 8:0.396226 9:-0.149826 10:-0.604096 11:0.175258 12:0.010989 13:-0.721908 
-1 0 1:-0.381818 2:-0.735294 3:-0.230769 4:-0.0982659 5:1 6:0.0482759 7:0.135294 8:-0.283019 9:1 10:-0.774744 11:0.402062 12:-0.003663 13:0.065481 
-0 1 1:-0.781818 2:-0.483193 3:0.692308 4:0.190751 5:0.391304 6:-0.572414 7:-0.617647 8:-0.962264 9:-0.198606 10:-0.791809 11:-0.0309278 12:-0.274725 13:-0.438965 
-0.7061061274417602 0 1:-0.490909 2:-0.0420168 3:-0.213675 4:-0.213873 5:-0.608696 6:0.289655 7:0.558824 8:0.207547 9:0.672474 10:-0.825939 11:0.938144 12:0.142857 13:-0.793048 
-0 0.2444448262616706 1:-0.412121 2:-0.302521 3:-0.111111 4:0.248555 5:-0.565217 6:-0.517241 7:-0.117647 8:1 9:-0.296167 10:-0.757679 11:-0.216495 12:0.487179 13:-0.940178 
-1 0.5262729095946594 1:-0.812121 2:-0.247899 3:1 4:0.017341 5:-0.282609 6:-0.468966 7:-0.00588235 8:0.773585 9:-0.554007 10:-0.569966 11:0.546392 12:-0.0989011 13:-0.468068 
-1 0 1:-1 2:-0.365546 3:0.145299 4:0.017341 5:-0.434783 6:0.324138 7:0.441176 8:-0.283019 9:-0.010453 10:-0.663823 11:-0.340206 12:0.553114 13:-0.438965 
-1 0 1:-0.745455 2:0.436975 3:0.0940171 4:0.132948 5:-0.73913 6:0.296552 7:0.582353 8:-0.698113 9:0.74216 10:-0.740614 11:-0.443299 12:0.736264 13:-0.835085 
-0.2300206468754299 0 1:-0.406061 2:-0.731092 3:-0.0769231 4:0.190751 5:-0.652174 6:0.213793 7:0.652941 8:-0.0188679 9:-0.0522648 10:-0.546075 11:-0.56701 12:0.150183 13:-0.880356 
-0 1 1:-0.793939 2:-0.478992 3:0.760684 4:1 5:-0.521739 6:-0.206897 7:0.117647 8:0.698113 9:-0.0592334 10:-0.706485 11:0.0103093 12:-0.142857 13:-0.696039 
-0 1 1:-0.642424 2:0.432773 3:0.0769231 4:0.248555 5:-0.782609 6:-0.227586 7:-0.170588 8:0.0943396 9:-0.344948 10:-0.774744 11:-0.360825 12:-0.047619 13:-0.511722 
-0 -1 1:-0.175758 2:-0.403361 3:0.111111 4:0.479769 5:-0.391304 6:-0.882759 7:-0.558824 8:-0.471698 9:-0.707317 10:-0.245734 11:-0.628866 12:-0.934066 13:-0.544058 
-0 -1 1:-0.357576 2:-0.852941 3:-0.145299 4:-0.271676 5:-0.673913 6:-0.296552 7:-0.858824 8:0.773585 9:-0.414634 10:-0.288396 11:-0.443299 12:-0.824176 13:-0.398545 
-0 -0.7560231846750259 1:-0.515152 2:0.609244 3:0.350427 4:0.132948 5:-0.586957 6:-0.724138 7:-0.923529 8:0.509434 9:-0.728223 10:-0.561433 11:-0.443299 12:-1 13:-0.285368 
-1 -1 1:-0.157576 2:-0.130252 3:0.470085 4:0.479769 5:-0.326087 6:-0.0758621 7:-0.847059 8:0.509434 9:-0.721254 10:-0.37884 11:-0.154639 12:-0.355311 13:-0.495554 
-0 -1 1:-0.10303 2:-0.193277 3:0.623932 4:0.132948 5:-0.434783 6:-0.613793 7:-0.905882 8:0.509434 9:-0.763066 10:-0.433447 11:-0.402062 12:-0.238095 13:-0.479386 
-1 -1 1:0.315152 2:0.705882 3:0.025641 4:0.017341 5:-0.521739 6:-0.296552 7:-0.729412 8:0.283019 9:-0.574913 10:-0.467577 11:-0.113402 12:-0.428571 13:-0.560226 
-1 -1 1:-0.515152 2:0.256303 3:-0.230769 4:-0.156069 5:-0.0869565 6:-0.724138 7:-0.741176 8:-0.396226 9:-0.491289 10:0.182594 11:-0.649485 12:-0.465201 13:-0.0670978 
-0 -0.01094184143338484 1:0.0363636 2:0.12605 3:-0.316239 4:0.132948 5:-0.304348 6:-0.641379 7:-0.876471 8:0.132075 9:-0.379791 10:-0.535836 11:-0.752577 12:-0.699634 13:-0.107518 
-0.6915990933308795 -1 1:0.00606061 2:-0.57563 3:0.709402 4:0.653179 6:-0.158621 7:-0.447059 8:-0.509434 9:-0.198606 10:-0.00682594 11:-0.731959 12:-0.956044 13:-0.762328 
-0 -1 1:-0.315152 2:-0.831933 3:-0.401709 4:0.017341 5:-0.282609 6:-0.655172 7:-0.858824 8:0.509434 9:-0.310105 10:0.0784983 11:-0.793814 12:-0.794872 13:-0.414713 
-0.955446237791031 -0.2565744481802401 1:0.751515 2:-0.668067 3:0.623932 4:0.595376 5:-0.391304 6:0.255172 7:-0.429412 8:0.509434 9:0.595819 10:1 11:-0.814433 12:-0.494505 13:-0.382377 
-0.652811191516611 -1 1:0.357576 2:-0.00420168 3:0.350427 4:0.017341 5:-0.195652 6:-0.413793 7:-0.870588 8:0.396226 9:-0.728223 10:-0.215017 11:-0.0103093 12:-0.59707 13:-0.35004 
-0 -1 1:-0.151515 2:-2.22045e-16 3:0.418803 4:0.248555 5:-0.217391 6:-0.537931 7:-0.847059 8:0.773585 9:-0.616725 10:-0.266212 11:-0.195876 12:-0.384615 13:-0.52789 
-0.1970690952275198 -0 1:0.181818 2:0.558824 3:0.897436 4:0.595376 5:-0.0869565 6:-0.310345 7:-0.635294 8:-0.471698 9:-0.512195 10:0.232082 11:-0.608247 12:-0.52381 13:-0.430881 
